{
  "prices": [
    319283438,
    317453142,
    316400396,
    310929475,
    326609762,
    309842898,
    313928602,
    325681775,
    325989944,
    330563828,
    331055928,
    323523551,
    320248242,
    332107582,
    327579915,
    305399978,
    298685267,
    304014995,
    298720267,
    297046795,
    307619893,
    332478196,
    325314849,
    336952818,
    336322407,
    334113890,
    338631405,
    329136782,
    325987841,
    327655861,
    318573472,
    315710916,
    325474269,
    324093699,
    318046398,
    330284790,
    326857279,
    310234491,
    309757268,
    309235050,
    309858243,
    308695721,
    302773152,
    282475829,
    280454618,
    291825208,
    314727833,
    333874136,
    338808351,
    328742048,
    333216151,
    357733881,
    351177343,
    356264435,
    345575199,
    360770293,
    346084773,
    362821648,
    349132271,
    347371118
  ],
  "layer1_weights": [
    [
      -120320544,
      -118230136,
      -115777080,
      230445360,
      -97396016,
      119695456,
      165689024,
      101488488,
      188832992,
      213716352,
      -75165696,
      181144752,
      37544036,
      137049504,
      -236508272,
      -24013862,
      209755376,
      -174381872,
      -188277904,
      129897144,
      -49046224,
      -150223872,
      -131540672,
      15179797,
      -229157456,
      -151265376,
      207836592,
      90569488,
      -47278404,
      -76429848,
      102682408,
      -76575592,
      -219088432,
      -197336720,
      -194678848,
      211121712,
      -88067856,
      -213787840,
      -212897312,
      -140727200,
      167415120,
      -126068264,
      -151436992,
      -135213680,
      -201031664,
      57554296,
      60278204,
      198012240,
      38458940,
      119934832
    ],
    [
      -139663152,
      -131666240,
      -121454408,
      -218001424,
      51348360,
      -53932512,
      10617562,
      184234208,
      1508537,
      64195656,
      -155554816,
      -90850416,
      217962608,
      34751804,
      -168895312,
      -204065120,
      -30860720,
      162352256,
      -146105264,
      194076288,
      -35755252,
      -234557472,
      70711344,
      146699584,
      -211917264,
      -190974320,
      156751104,
      138753680,
      197547936,
      -180114064,
      90100144,
      -86244368,
      -111454312,
      45296848,
      57827364,
      178274320,
      148032256,
      144738448,
      27822614,
      -136788256,
      22976658,
      227879344,
      169435504,
      -189165552,
      -9304121,
      91007272,
      -114567264,
      -196230608,
      -33540390,
      -32884858
    ],
    [
      16414940,
      -208880112,
      182172768,
      -159171984,
      -229732688,
      34995032,
      119359816,
      -107775272,
      96985072,
      137237328,
      -83125936,
      -163364208,
      103426080,
      -12077596,
      -12109212,
      -7832957,
      164580656,
      -139463440,
      -80264656,
      -2054836,
      -131199408,
      -196751808,
      -118128504,
      32622870,
      -117048480,
      -150583216,
      101245104,
      55340384,
      -104842560,
      57650808,
      172481328,
      -228977456,
      -88296936,
      -1962589,
      -144479728,
      -85605312,
      96119336,
      -219695104,
      -91802640,
      225194448,
      -20480760,
      212101760,
      -187338656,
      -125612248,
      -186124384,
      -124183840,
      89419224,
      145194288,
      77694096,
      55598160
    ],
    [
      175072016,
      184533152,
      -13198378,
      -32064516,
      -216169600,
      100349800,
      -192988464,
      46800276,
      -84684088,
      -129456816,
      88183232,
      202228112,
      -152394240,
      32906342,
      27888914,
      3586314,
      197643120,
      -36273644,
      -136746800,
      200688544,
      -25882208,
      132075336,
      -142953248,
      -79666672,
      79266760,
      54635104,
      256662576,
      185603440,
      30625432,
      -62873380,
      26699870,
      198957904,
      221050224,
      -41338620,
      160706624,
      93454360,
      29024566,
      -104706464,
      1715817,
      121209856,
      164217200,
      232697392,
      28124182,
      -25743024,
      -127513840,
      23919132,
      -47651252,
      -224082576,
      191861968,
      17720460
    ],
    [
      15065596,
      -107209560,
      175969424,
      -43471968,
      -184457584,
      134112464,
      -203988016,
      -16127812,
      67454496,
      195043712,
      187768016,
      -224752864,
      -11339354,
      124467608,
      64343772,
      63405804,
      109678168,
      -151279488,
      149330496,
      28516324,
      44220660,
      -38919684,
      78803176,
      -216511888,
      -100283360,
      47075996,
      231590160,
      -237202496,
      -100037888,
      -124914344,
      -149481408,
      -246018896,
      -103742376,
      -225921216,
      -15208757,
      -87514224,
      -154786656,
      -151425888,
      152752336,
      -14909905,
      188857248,
      -14679489,
      -217444272,
      -36825128,
      -43291540,
      -103101384,
      57384172,
      145080768,
      -36609100,
      217499808
    ],
    [
      -140608544,
      -75667520,
      99479464,
      29394272,
      -98523808,
      215410240,
      -51977832,
      -52282544,
      216373712,
      115639512,
      -81035888,
      157741600,
      -144601920,
      170732800,
      -136818176,
      59865568,
      100450528,
      29258750,
      127076240,
      -39803712,
      81267008,
      -5318188,
      -78833448,
      -16275974,
      -53480336,
      -163946576,
      -153086176,
      -202852512,
      99185672,
      -10048988,
      98645344,
      117156920,
      -95967008,
      87562616,
      -233186752,
      -112224976,
      34424188,
      51341604,
      202853888,
      -68101176,
      24608886,
      -7019209,
      124224472,
      171031904,
      -221162976,
      -186451424,
      113396192,
      177778736,
      169952176,
      154076800
    ],
    [
      4522204,
      -72651832,
      58010092,
      -230111952,
      125783832,
      136271232,
      -146016912,
      156638928,
      -163703600,
      182831152,
      5929086,
      68624296,
      -61825500,
      85101448,
      135482288,
      156305968,
      181169024,
      41686384,
      100252208,
      219690304,
      37655088,
      76222504,
      -73742240,
      79625160,
      140666240,
      -33876900,
      -116731568,
      -143951200,
      56842236,
      231149696,
      -163548528,
      66878304,
      198467680,
      -110518832,
      -86693648,
      -238197936,
      -26902386,
      -16904764,
      181508656,
      -22527408,
      103078680,
      -133408888,
      1112300,
      -128411520,
      104887992,
      -117740360,
      -198520768,
      -76392792,
      103314144,
      39578904
    ],
    [
      -21752402,
      -56127572,
      84947128,
      53413060,
      -176931296,
      63009828,
      80370296,
      -192180448,
      230673344,
      -79445328,
      77052384,
      -182777296,
      152271808,
      -213793648,
      59151368,
      144411584,
      5252809,
      137436928,
      -177281648,
      -168687376,
      -136466976,
      118473480,
      -217944208,
      -14159028,
      -219379232,
      72948096,
      70070744,
      -29388524,
      55583300,
      39280912,
      -120904304,
      54665940,
      182898336,
      -152612448,
      -151222816,
      74557528,
      22976448,
      218181856,
      33094362,
      212193648,
      111657672,
      -76654520,
      -69591256,
      237616688,
      -152012736,
      163137776,
      -142256768,
      -6745492,
      -124414416,
      -178259264
    ],
    [
      -216229328,
      -116067376,
      -162006752,
      -58445432,
      -56949868,
      -25513410,
      195782352,
      -30876328,
      145550896,
      60699172,
      -45000892,
      -132650640,
      143444592,
      135597616,
      59736728,
      -114915376,
      45805816,
      14553865,
      -175361216,
      80169528,
      51781420,
      -14508340,
      -27915244,
      198272688,
      -61480780,
      -181386992,
      -184994304,
      -3949071,
      -66358940,
      208652592,
      -112321816,
      75035744,
      105966152,
      -29802956,
      -60126616,
      6570989,
      224040352,
      -216176224,
      -134353408,
      67323216,
      240517968,
      -58135124,
      74698384,
      -1120320,
      -54565252,
      177192688,
      204370272,
      -132668656,
      -218661440,
      32470804
    ],
    [
      54192068,
      35169648,
      220990112,
      -158070512,
      197133456,
      -76624384,
      49667164,
      157249952,
      62907620,
      -179259760,
      -198217184,
      10879413,
      125679224,
      235592352,
      -230759600,
      -30383720,
      -120542600,
      130837528,
      221662672,
      -60493732,
      205133952,
      66619932,
      108443304,
      -41248928,
      187066512,
      -150943568,
      -33366024,
      128964912,
      -125311312,
      -197323040,
      174915904,
      111109864,
      203345744,
      -114266304,
      210817680,
      173212672,
      68458264,
      36646628,
      -177822688,
      -190043968,
      -164676368,
      -49510144,
      -196239984,
      78246888,
      -102229328,
      233858288,
      229082944,
      -176039712,
      135464192,
      121562008
    ],
    [
      52079708,
      38330232,
      -42500860,
      -47373956,
      157907520,
      212587632,
      -139916672,
      -16954460,
      -48730108,
      4381691,
      -38700632,
      134284304,
      162265152,
      190570560,
      175251104,
      180368800,
      -83686712,
      167653824,
      206991488,
      112745808,
      65755644,
      137846944,
      -106908304,
      -98573256,
      110250304,
      197851264,
      7176509,
      -114132392,
      -48781516,
      22703150,
      -170517472,
      72472976,
      156642176,
      -71066184,
      88686704,
      169487632,
      91647160,
      -80853864,
      58353648,
      94454648,
      -211374416,
      -169516128,
      -120485840,
      205878384,
      -181321040,
      -183308304,
      19748742,
      -46621320,
      149181344,
      99751296
    ],
    [
      -226030240,
      -152691248,
      205898096,
      -196750096,
      24696230,
      -194313088,
      -76368816,
      -89937760,
      -19685970,
      -197722240,
      179573072,
      -407352,
      228534000,
      187186784,
      -226203168,
      -189738000,
      215976112,
      -122944904,
      -206631840,
      -225513120,
      35727492,
      -117385720,
      -216505328,
      -4307926,
      184723936,
      91087464,
      -154511936,
      -78550080,
      -223233376,
      -226026656,
      122737096,
      169312080,
      152124800,
      73419984,
      9078471,
      124769296,
      -75550624,
      -118078504,
      23600372,
      -158557936,
      129810928,
      98460504,
      38170596,
      -195710080,
      -66356496,
      76799208,
      -230710000,
      -110823776,
      63765892,
      143114656
    ],
    [
      161245968,
      5564143,
      203519360,
      177130048,
      -31988144,
      -125730320,
      -103574208,
      7523584,
      201792864,
      -40158184,
      -194665600,
      137216976,
      -92171352,
      -10093240,
      -149756480,
      -94304864,
      133242352,
      62179208,
      -11529580,
      -18697474,
      -202986352,
      161362160,
      141990848,
      216784816,
      51888584,
      -10985909,
      -129339528,
      140781712,
      -216403008,
      208854832,
      -157493920,
      129019592,
      161487776,
      -223962944,
      -84117528,
      -240859888,
      198021968,
      153106256,
      -183140048,
      130988824,
      -232014976,
      -71666544,
      145671216,
      -182800624,
      -51521644,
      -107192360,
      -224179440,
      -106896248,
      76730472,
      -211426400
    ],
    [
      -61353416,
      35981092,
      -178481328,
      145567952,
      -188775376,
      -221523232,
      158789408,
      -27812848,
      -198946080,
      -85500768,
      61180372,
      -211502352,
      -224656624,
      42862328,
      152757360,
      -157289040,
      126562000,
      51658068,
      93918472,
      172615376,
      179298400,
      -180210736,
      -82184192,
      99071416,
      7318342,
      -128491896,
      106888648,
      -105894936,
      160533104,
      -122919392,
      143751984,
      -162113968,
      -52712336,
      116868168,
      -91703592,
      48800368,
      169715184,
      -228841264,
      73621720,
      14269426,
      -10190757,
      147591216,
      -136414560,
      237180672,
      14694244,
      162201616,
      -99468376,
      793862,
      139898336,
      -103998040
    ],
    [
      -15114978,
      110747968,
      -114970080,
      53563196,
      -161339728,
      201656368,
      -133787576,
      -98362664,
      -86916296,
      -84028688,
      -84759664,
      -46515240,
      -49467664,
      -124583344,
      -162580608,
      141802320,
      -39050144,
      43532348,
      -202256800,
      214664288,
      90236288,
      -122869448,
      218095536,
      108778072,
      -81469472,
      -14065786,
      -16812028,
      -83994104,
      -49667420,
      182784976,
      47082724,
      -229731216,
      209809728,
      170903392,
      9314374,
      34532168,
      -189256944,
      138365424,
      90444392,
      95884336,
      -13018884,
      -89269216,
      67930096,
      -192089120,
      2921491,
      136492528,
      171088208,
      209984304,
      -216733360,
      193205136
    ],
    [
      -229041296,
      69692256,
      129936960,
      177312832,
      208475776,
      -12679227,
      -78165352,
      -56549964,
      -137678288,
      217723424,
      -220221632,
      -229601056,
      167958704,
      -171342800,
      411517,
      181933712,
      -165604656,
      172429872,
      211095392,
      185255008,
      -40906636,
      50652272,
      -217398992,
      -630227,
      77406440,
      130765632,
      -39623800,
      -116593840,
      67696152,
      -131755264,
      105606424,
      -123912784,
      3674999,
      15231143,
      12872118,
      -19342726,
      78415128,
      -227732096,
      -81624904,
      -190650944,
      8043819,
      -213374592,
      -137066224,
      -89937296,
      -62805548,
      222318224,
      -86657880,
      -223149344,
      187155264,
      5152361
    ],
    [
      -160165664,
      -37223364,
      -113847272,
      -99404488,
      71119752,
      -241202384,
      224640384,
      19665524,
      -74017656,
      202748560,
      91421224,
      -229395792,
      225909392,
      212843600,
      -35587728,
      154683872,
      -170054368,
      -113798736,
      203851216,
      -94664944,
      -34631172,
      -212930768,
      213925712,
      118132960,
      39095008,
      67901328,
      167118352,
      -19681202,
      1650035,
      70299864,
      -87989144,
      -141972800,
      -82945400,
      -34575760,
      127904536,
      -48134072,
      174414352,
      98958352,
      29874800,
      -213479648,
      81349768,
      122370664,
      100078400,
      181094256,
      105727640,
      168086000,
      154887504,
      20653204,
      -105394488,
      -64635456
    ],
    [
      228900400,
      48981396,
      93990904,
      -133264064,
      -213509472,
      -79425256,
      -91439632,
      213261360,
      -221503568,
      -223583520,
      33636716,
      -78126592,
      209594624,
      102788640,
      -142802704,
      44703176,
      -172341424,
      226963200,
      147314784,
      -72569648,
      -154985472,
      -119563560,
      -20794964,
      75938960,
      -59066300,
      146017264,
      214069136,
      -52405328,
      -10721177,
      -91923208,
      12957837,
      211717696,
      -208500912,
      72004280,
      -206034608,
      130747944,
      216864288,
      -183920560,
      109369600,
      136615840,
      194335648,
      -48419480,
      -55739400,
      -98922072,
      210815424,
      129050080,
      -174506448,
      196261504,
      -74879424,
      175672032
    ],
    [
      -166740496,
      -18325028,
      26861272,
      -200440384,
      153045600,
      -221221568,
      8342977,
      -37329452,
      -46029620,
      -87791728,
      6586058,
      193146944,
      -81784896,
      45226788,
      221644176,
      -149246176,
      156912864,
      136789488,
      -183346160,
      -40136880,
      -137850784,
      17685826,
      38355396,
      -138345232,
      32620292,
      -31439208,
      37895488,
      158818528,
      -171018416,
      44395472,
      254734224,
      176759296,
      -78434448,
      -5155203,
      214603840,
      -22819486,
      -61627136,
      45428940,
      222502960,
      104574856,
      213494096,
      -224922944,
      -6663569,
      -205403360,
      30300408,
      -52999368,
      61176760,
      11104135,
      207779504,
      -206967168
    ],
    [
      133351504,
      -40679260,
      39628324,
      -74163216,
      6314128,
      87946368,
      -140412960,
      -62772116,
      39646316,
      182951072,
      34880816,
      -239048576,
      -59341784,
      -174502160,
      87527544,
      -100492456,
      -169126992,
      -170139392,
      -175128848,
      -52581720,
      78945792,
      202991920,
      186213296,
      -115699800,
      112048576,
      -213317536,
      -145661088,
      -1599603,
      197321328,
      80171304,
      7129897,
      153849200,
      -226591872,
      -188968880,
      38064720,
      17707720,
      -170046944,
      206188848,
      195205904,
      52604468,
      149008848,
      -82170496,
      -179321952,
      -163317008,
      -29248118,
      -97024176,
      128408192,
      -215351936,
      -138533168,
      102059464
    ],
    [
      -153832112,
      -147496528,
      66160636,
      82871216,
      188236928,
      27838698,
      -27818104,
      37020296,
      -52144020,
      201892912,
      154024560,
      117000472,
      122428384,
      -119145504,
      54115176,
      126203936,
      208089792,
      149347872,
      70896808,
      -21644774,
      -44509128,
      -189341360,
      194657408,
      82659168,
      128208264,
      209519184,
      246660224,
      213543056,
      70612640,
      -135417824,
      -150643440,
      174471488,
      -77244304,
      20897056,
      -52406088,
      21920926,
      554620,
      167693168,
      99883640,
      68596352,
      136665408,
      84279600,
      -40578916,
      -167572384,
      153204000,
      -59463920,
      128530280,
      -138752144,
      195968128,
      93814848
    ],
    [
      -207109712,
      -68212904,
      -215877472,
      63588852,
      59185684,
      206551920,
      -88601168,
      -184133424,
      33684540,
      -77871088,
      202365744,
      -74762920,
      221180768,
      -122797080,
      88432040,
      75318592,
      -19871102,
      -5068952,
      117078544,
      193382464,
      -29075652,
      -212718272,
      162374640,
      229916480,
      184799200,
      212617376,
      -141426240,
      80422720,
      85674856,
      -92508360,
      42912172,
      -81477752,
      69787320,
      -143162688,
      55777520,
      104503256,
      74083200,
      143331888,
      188558720,
      12279386,
      16161913,
      -49417828,
      -5310982,
      202208912,
      -64973116,
      182861440,
      -42694500,
      -134843120,
      30006768,
      -155373600
    ],
    [
      152580672,
      187452944,
      10683513,
      92716984,
      3587126,
      166978128,
      -164164432,
      -149964672,
      -159151232,
      95839600,
      204738560,
      56159512,
      142612256,
      -106243416,
      -80788888,
      -126877488,
      138842256,
      -134724384,
      -44158176,
      110271888,
      -177758480,
      57281100,
      -2206121,
      89212584,
      -196547888,
      -145877104,
      116649496,
      -72698784,
      -110604376,
      -219230096,
      -8527339,
      -158456224,
      -190659472,
      165525712,
      134476656,
      3434036,
      164210096,
      -27883888,
      -193115760,
      38367212,
      164907552,
      -5978095,
      -45764724,
      45485604,
      -51103636,
      -105513520,
      140744896,
      -68714464,
      -27613742,
      -136575568
    ],
    [
      215931152,
      134365952,
      -205382832,
      95694784,
      38141908,
      -57704160,
      25041362,
      -145460896,
      -148053952,
      -158444944,
      -80553856,
      -70767224,
      -17743908,
      -209302144,
      -208364384,
      17107652,
      166138224,
      -3187697,
      -171881008,
      -16751440,
      -176548768,
      -16976622,
      -67002720,
      -221236256,
      147360544,
      -171095776,
      76791320,
      174222960,
      86435584,
      105619560,
      -123673464,
      134794864,
      184968448,
      16309394,
      -66511788,
      20003538,
      -161378416,
      -238283360,
      202894336,
      -116059504,
      -161668800,
      -92385984,
      -142343712,
      -53574676,
      44556528,
      -154763728,
      -213940240,
      36931176,
      -219375680,
      125256912
    ],
    [
      56097208,
      108881112,
      -53977892,
      24211756,
      -202034112,
      -10562059,
      -135295072,
      16971012,
      -190717248,
      -40904560,
      91160560,
      -145374976,
      -156968256,
      -69067256,
      -88690888,
      -43220820,
      225674288,
      -114526176,
      198378288,
      210783712,
      200886816,
      -226875968,
      -107922760,
      14720066,
      105715352,
      201483952,
      -209780064,
      29252422,
      -128791648,
      -139703632,
      253288832,
      -103335808,
      -27866406,
      129419904,
      149648288,
      -25559266,
      214639232,
      -24178376,
      -203323056,
      -75795424,
      -82738016,
      44992112,
      92763632,
      135773952,
      185661312,
      40230064,
      -4431750,
      -130640208,
      56168068,
      25782474
    ],
    [
      -198454800,
      97764816,
      18508172,
      -163821920,
      88194760,
      144914768,
      40231392,
      88383480,
      135042272,
      -203081760,
      -121777648,
      -32996360,
      225845456,
      -176183264,
      123915040,
      72889512,
      181013376,
      -17651220,
      -223535120,
      -111430720,
      108288488,
      3249431,
      -134865392,
      -211266656,
      -1255912,
      -209076160,
      199107952,
      -178810336,
      -212992464,
      -95270728,
      -59312480,
      -248369648,
      129774376,
      -133966312,
      103742168,
      -155402608,
      53296112,
      183389312,
      10390195,
      42576688,
      37589188,
      105632160,
      55996488,
      -17973070,
      -72748184,
      -24719322,
      -213383808,
      109284936,
      172633808,
      -130836976
    ],
    [
      -135355056,
      113040712,
      -231280080,
      -128791016,
      -152951424,
      54950680,
      146173440,
      -138391280,
      -47689980,
      101683704,
      51497400,
      4818905,
      170006672,
      -101986384,
      129341288,
      99358952,
      -88825424,
      202239408,
      -204333968,
      -60331900,
      -11853172,
      52338176,
      49439276,
      201649200,
      216003920,
      215819392,
      -28194620,
      72379560,
      -214652176,
      -50136768,
      -191763408,
      -23387724,
      110111224,
      -57247816,
      161642320,
      60020676,
      -193593216,
      39598796,
      -141919520,
      -98804360,
      15332474,
      -42578200,
      -86826224,
      37039980,
      194418016,
      -156332256,
      -178709280,
      212880192,
      -15705273,
      -41327940
    ],
    [
      -122487936,
      -220387168,
      125202712,
      -121007456,
      -79119608,
      -5860477,
      -82074880,
      205643088,
      193570224,
      -98888104,
      -188015856,
      108308184,
      208032592,
      -146859184,
      -124650168,
      -39144380,
      -38286116,
      -157950576,
      81426592,
      -233161408,
      -44136660,
      -210435488,
      -102270344,
      -200790800,
      -115977080,
      -90260256,
      -203792208,
      62222876,
      181834704,
      217198688,
      75613360,
      108038896,
      -38589516,
      175875808,
      -202368736,
      -4322668,
      -83551608,
      -54674152,
      -111682672,
      196962128,
      112058768,
      155021248,
      70801776,
      141194064,
      15455812,
      -172072352,
      31448436,
      137473088,
      138131008,
      177555888
    ],
    [
      12962133,
      -112355096,
      224430288,
      -196480512,
      -173761968,
      -207196736,
      -209167664,
      22049802,
      -121868680,
      -232159376,
      -140100336,
      -6774505,
      -102879960,
      -171080704,
      -172456272,
      151304608,
      -216853984,
      -151112080,
      182756160,
      -211963440,
      -52853788,
      -206023184,
      -139545296,
      -121823720,
      8502099,
      -168749024,
      -182541184,
      -72753152,
      212668448,
      103099880,
      -154092400,
      -12727607,
      -117096064,
      -156312816,
      35750120,
      22479026,
      119873280,
      -26198238,
      -180699056,
      139159936,
      -31600892,
      165863488,
      -231224192,
      86762752,
      161116272,
      -97841856,
      113073336,
      89593848,
      -183951296,
      -85240696
    ],
    [
      197410224,
      -88454816,
      71025288,
      -140547664,
      79273848,
      116427552,
      -73921744,
      -165098368,
      -32425206,
      161331712,
      -82423208,
      -111092560,
      -210236128,
      -198217152,
      47329144,
      147366448,
      -54461828,
      -53713156,
      -210778352,
      -216137888,
      114701520,
      166792368,
      -15451282,
      -88812496,
      52284308,
      155169088,
      205856480,
      -153328080,
      -224833296,
      -826667,
      228474160,
      -26251520,
      -154461184,
      191744528,
      -31828712,
      150411648,
      75920976,
      187604976,
      154289440,
      113437392,
      -72888936,
      -30256640,
      99155560,
      -179748496,
      -111773264,
      -111057360,
      20554090,
      -49088024,
      -21097320,
      -118611776
    ],
    [
      -151056880,
      242840096,
      94830624,
      -206838336,
      126442912,
      47148204,
      -104696096,
      -14564248,
      -4968864,
      4936219,
      -12334895,
      171826464,
      68600192,
      87926928,
      148930912,
      22601624,
      -112983160,
      -75042192,
      -208679680,
      -155482160,
      -139565600,
      -166133568,
      -119142744,
      -75604824,
      10223633,
      86556200,
      164459680,
      -114578584,
      -169925760,
      217934240,
      -165687360,
      10999965,
      208891200,
      -16847016,
      -212034784,
      -72529056,
      -70884056,
      -143129776,
      165666848,
      48239996,
      219587968,
      -108894288,
      29258402,
      -147541840,
      -128645256,
      -143845440,
      61585508,
      167353488,
      -90556088,
      181351520
    ],
    [
      111169848,
      -177578208,
      171055632,
      43257356,
      151737216,
      45953812,
      8852053,
      -16694374,
      15421562,
      -94919400,
      -47265724,
      7711159,
      184650688,
      -71450648,
      -123701608,
      191059,
      82422192,
      -197910848,
      -123038800,
      -246093632,
      -17391744,
      119862896,
      40995068,
      66111556,
      138898560,
      15135379,
      -36149064,
      166264384,
      -38457840,
      -121645400,
      107408832,
      135007152,
      80596824,
      -154049504,
      -233834688,
      -17960748,
      -34387768,
      177059376,
      174619056,
      -224158592,
      214521184,
      -901287,
      177774032,
      -79263080,
      -105004488,
      -156372272,
      38847560,
      -127190920,
      2551150,
      -85864600
    ],
    [
      66592188,
      -205907584,
      -23223728,
      -113449528,
      -57420716,
      7509087,
      32076034,
      -23856050,
      -154411632,
      -43957444,
      -118563592,
      116757080,
      -107364464,
      9817023,
      170736656,
      -139782624,
      163939328,
      61583312,
      -209739536,
      114080784,
      135408672,
      85709104,
      -158025248,
      171515968,
      85939760,
      126882088,
      -92563504,
      176810896,
      86847576,
      -163802992,
      189895008,
      -188240704,
      -62519388,
      -223430976,
      -229969984,
      -155311920,
      69249336,
      163716688,
      46357928,
      151131824,
      -68961136,
      -73930840,
      23848762,
      212290224,
      180231840,
      247973056,
      210221200,
      151958480,
      29773830,
      122342480
    ],
    [
      89315800,
      -159642512,
      -77854144,
      180678832,
      37208616,
      98718120,
      -176123008,
      82614656,
      -214580816,
      55898256,
      226920448,
      -10313074,
      -125909104,
      5122352,
      198495680,
      66808580,
      209190256,
      198404080,
      151352560,
      -139570320,
      158108688,
      -203827952,
      21999432,
      -152833520,
      -86189352,
      52980104,
      229386144,
      88138872,
      -210195632,
      -16175611,
      228835888,
      65495588,
      19292418,
      -22266638,
      -66430716,
      -157841024,
      142550624,
      -224358128,
      -22663204,
      -193354352,
      -190976592,
      219662288,
      -29446238,
      215069728,
      154440880,
      25588148,
      -76583984,
      205446864,
      -219035936,
      -82069136
    ],
    [
      -6698385,
      176502496,
      -37135480,
      104752056,
      -176812752,
      -116936488,
      74787880,
      -121086184,
      176238848,
      -89986424,
      19017810,
      205800848,
      -212906800,
      213137632,
      115959600,
      113857016,
      -224473440,
      144729872,
      -177921728,
      -207336304,
      -34742964,
      -37151028,
      -115286344,
      -98335664,
      185631968,
      -194431344,
      128489272,
      -86511248,
      -54399548,
      -207450032,
      -57758192,
      72092568,
      39006416,
      129856992,
      33654000,
      -188455040,
      173790176,
      108528272,
      -152553264,
      17228214,
      -186871504,
      63921228,
      950793,
      181808688,
      -76873648,
      232816080,
      215776880,
      -172597824,
      183628720,
      -46637648
    ],
    [
      -142898112,
      -2255800,
      189996224,
      67220072,
      182767952,
      -77617120,
      -148769008,
      134225968,
      -36447596,
      175451648,
      -127900872,
      88156816,
      -168894976,
      -66074640,
      1966213,
      122758456,
      235109840,
      21635190,
      -232692576,
      23515068,
      90155520,
      85031312,
      150901664,
      -125130328,
      -130923536,
      -219454400,
      -147431616,
      -171845328,
      117677896,
      140869152,
      102761816,
      -43908592,
      -67935312,
      -113082952,
      11574532,
      205564752,
      -220905440,
      1377948,
      -160037824,
      204982656,
      60276592,
      7987913,
      56068264,
      -119060072,
      -227784432,
      -88435512,
      -83927424,
      127427224,
      162308704,
      23110986
    ],
    [
      -138455296,
      20048574,
      -83870136,
      222176144,
      106383920,
      -96022760,
      29440210,
      -105044080,
      100131248,
      -101416736,
      172435184,
      -148232656,
      -179164400,
      108039280,
      89236176,
      83508832,
      199340144,
      -61411148,
      52285792,
      -98462064,
      166336048,
      98977912,
      71873024,
      -73203336,
      156622224,
      111905152,
      -197127888,
      60722096,
      -216770640,
      56280924,
      -82683664,
      17314070,
      87003648,
      -162194880,
      139404528,
      -164770832,
      100898160,
      40397592,
      138594048,
      -87073000,
      -166498832,
      232142976,
      234880320,
      -77786672,
      -187674704,
      162187408,
      -171149968,
      106166264,
      76423560,
      23896774
    ],
    [
      -66149412,
      -171158128,
      185249328,
      61552452,
      -166890448,
      -192998608,
      55610116,
      -253428096,
      -197563904,
      -107556600,
      129439888,
      229256256,
      -19534228,
      -142755600,
      80094496,
      182487968,
      -23117396,
      34543032,
      -94088640,
      -205629264,
      215862192,
      -134368112,
      -71739232,
      -120281648,
      170710128,
      216540672,
      163574912,
      120473424,
      -62437608,
      -122550432,
      -138343200,
      18394458,
      -68989720,
      -115955688,
      149706448,
      -167501056,
      -204210624,
      192952880,
      219669808,
      138864288,
      -150820352,
      -117993608,
      231667408,
      -61260568,
      -150711872,
      -75079024,
      -183261104,
      16585432,
      -133898448,
      -61731636
    ],
    [
      -18757284,
      145706064,
      192037648,
      123664952,
      -181339856,
      125586312,
      -63216208,
      109818576,
      -5933240,
      -150300320,
      101094792,
      -121974096,
      80519648,
      -28100786,
      -90531856,
      -171453760,
      -54060056,
      102722008,
      -184664480,
      -129241424,
      -100797944,
      64592928,
      -97498040,
      -96939984,
      -239307632,
      213529984,
      -96898456,
      61816592,
      10866851,
      120255384,
      -162173376,
      -96997560,
      -129184768,
      167971776,
      218823888,
      -127566144,
      113260448,
      -200738848,
      117720928,
      96528392,
      -108410904,
      -139656384,
      138947296,
      203601424,
      -95951008,
      -126083760,
      -172638416,
      185639824,
      133833944,
      174742128
    ],
    [
      -113033248,
      -88233896,
      -238096016,
      126759248,
      -92810560,
      -46080260,
      -117507616,
      146509728,
      -194890768,
      -12661655,
      -70729728,
      122309920,
      -148760208,
      -136071168,
      -115618920,
      23945990,
      -66902980,
      219149984,
      164329504,
      -217077936,
      -227672224,
      81090136,
      21076144,
      -116736360,
      189402032,
      -173092688,
      40098128,
      216657744,
      -170176224,
      -5925295,
      148613248,
      90323616,
      -75054856,
      -27192234,
      132151560,
      -69936264,
      120389144,
      -82370416,
      9452918,
      248885648,
      -167784176,
      69147456,
      -165750720,
      -142725872,
      25430292,
      104075064,
      75387928,
      -121491576,
      -179819120,
      13670128
    ],
    [
      200204608,
      -130562616,
      91021504,
      49980420,
      120673448,
      28854710,
      -82440000,
      90857080,
      165301360,
      18092290,
      -72545888,
      -135051984,
      11241440,
      -5581124,
      -225336208,
      54881012,
      90952224,
      -149172928,
      127675832,
      -8226795,
      -14448714,
      -100390368,
      13054408,
      45777492,
      -196591456,
      49538388,
      -246606656,
      -170619600,
      -54399328,
      64163848,
      -71049976,
      -16565043,
      -132335856,
      -201049920,
      -101049304,
      208495536,
      -39936844,
      -118040264,
      129363584,
      -156577632,
      2591346,
      -136009536,
      -48796692,
      69156744,
      -117040504,
      -42472088,
      18010080,
      -233700560,
      -136325680,
      -211729984
    ],
    [
      25896192,
      154726880,
      185223520,
      167238192,
      -202666336,
      84456856,
      24674594,
      -86831112,
      -56283916,
      31893854,
      61092252,
      105830952,
      -82073432,
      -152724896,
      221515344,
      -85719240,
      91428664,
      159913264,
      -188172224,
      159608144,
      162570880,
      -129149560,
      96086520,
      -150886368,
      -221281728,
      87764736,
      57374268,
      -138522432,
      8517876,
      202172752,
      203345392,
      63345432,
      -230282048,
      -222308032,
      -77523696,
      -58985376,
      -126185480,
      -55572340,
      57568748,
      187671136,
      61283080,
      -583927,
      36431000,
      252465696,
      -147127360,
      83257072,
      -164223536,
      -51345392,
      -73188432,
      -203110480
    ],
    [
      -8054256,
      -172339936,
      -225678144,
      175694064,
      106781600,
      -81565768,
      -29579920,
      51620800,
      86576432,
      224303936,
      38693888,
      92310168,
      223199664,
      195186464,
      -136034512,
      -221054032,
      6767384,
      -186811920,
      -4979133,
      -253576016,
      -116938864,
      114645000,
      182151376,
      13818082,
      -163334272,
      -199444944,
      -73786456,
      -63174380,
      -146969504,
      54969856,
      8281664,
      -120788928,
      26079894,
      -129986048,
      47400848,
      45436156,
      62999860,
      -235441408,
      -56989940,
      179456336,
      -20120166,
      120150600,
      64441860,
      -119314936,
      201218880,
      -38323772,
      -165070720,
      23438766,
      -157457712,
      73409720
    ],
    [
      55122316,
      86067344,
      -209794032,
      65773464,
      -188500528,
      159207040,
      -224557264,
      223523952,
      204856544,
      -228081152,
      -10610259,
      -45680264,
      192254224,
      78874696,
      -186661728,
      23848054,
      52777496,
      59959796,
      -139330912,
      -97269792,
      -166223264,
      52622740,
      -229728320,
      52115604,
      188578752,
      201075536,
      -130974112,
      -75915760,
      -157745584,
      117522384,
      10641170,
      -103291648,
      -214770464,
      -106402136,
      1154873,
      -215921280,
      196618176,
      -88507888,
      215820976,
      -11214571,
      -30986350,
      -48900564,
      218280176,
      -135666944,
      196590608,
      -77406736,
      -231537824,
      198079728,
      203834304,
      71951520
    ],
    [
      -142477136,
      47379436,
      -41583512,
      193268112,
      -85567656,
      -23492042,
      183060704,
      70672640,
      123730296,
      -14305504,
      66888832,
      424568,
      5292169,
      -57407200,
      -64709484,
      -187101024,
      127003848,
      -30480656,
      131001744,
      -27753256,
      -177271728,
      -74996104,
      41574104,
      -177439008,
      -66234872,
      -77948656,
      -73750464,
      -164698880,
      -156190480,
      130666632,
      -60290088,
      182847536,
      180764192,
      59655588,
      18904724,
      -232244512,
      98081904,
      217638880,
      29550766,
      103736272,
      47173688,
      133897584,
      39849812,
      45241428,
      -87551056,
      -59546916,
      69801528,
      218681488,
      -60307740,
      174653296
    ],
    [
      73004720,
      136919472,
      21501764,
      155141680,
      -211960992,
      110499504,
      -47098876,
      -139149072,
      -137412192,
      -131402536,
      21754862,
      218080944,
      95350056,
      186978848,
      -168946480,
      14551716,
      77405072,
      90354336,
      -115040440,
      -210167472,
      -231871680,
      209930480,
      -235966928,
      169412784,
      -241745280,
      11388899,
      37771996,
      -213546512,
      -39998756,
      231346928,
      120024192,
      105779000,
      244080480,
      105001664,
      -139098976,
      -50509988,
      -161201360,
      -86930560,
      -170726688,
      183667296,
      -54723256,
      22609674,
      44713384,
      149415168,
      -198931152,
      205553152,
      -78622040,
      -192547504,
      -32916762,
      -217505088
    ],
    [
      -35018324,
      170578640,
      -169252016,
      98502304,
      115235120,
      69467856,
      -231233696,
      80813224,
      -75937808,
      -106710080,
      -94737816,
      215571744,
      136249280,
      42390772,
      -22983662,
      -123710568,
      26236840,
      -81479440,
      117675128,
      -192329072,
      -121650888,
      -54685696,
      -110326040,
      146550496,
      -94418592,
      105477096,
      207919632,
      62640840,
      -60536936,
      134262272,
      190374192,
      -192653248,
      185276464,
      130356592,
      132495808,
      -81876080,
      44245472,
      36833280,
      176197136,
      157780192,
      -119426456,
      -192380496,
      33803964,
      -45424508,
      -195456384,
      24009102,
      57807320,
      -80135928,
      -175913168,
      -75506208
    ],
    [
      -144160768,
      -112640784,
      20400010,
      211791568,
      -111850552,
      -46722416,
      60549616,
      -98633512,
      -209660448,
      -20634612,
      83960896,
      -42385164,
      -28218034,
      -60844440,
      -122435000,
      -239539632,
      -219495168,
      78403280,
      -88019240,
      -203932128,
      99898808,
      108949264,
      -232470544,
      109725496,
      -205824992,
      93493352,
      224913680,
      -134245072,
      120511024,
      41925108,
      -160596224,
      80224728,
      -145393200,
      127448920,
      -88806072,
      197619600,
      138381936,
      141388864,
      -46450588,
      -176880736,
      172210160,
      125342968,
      75783368,
      -143720672,
      198610096,
      248132192,
      -211288352,
      58086704,
      39313088,
      -17720650
    ],
    [
      -186784000,
      173648592,
      106763128,
      194725328,
      -182860720,
      59361940,
      -148686992,
      19201700,
      -236234000,
      -120635872,
      125394000,
      166907456,
      -181813632,
      223604688,
      -84638104,
      124625472,
      -66582308,
      -74381064,
      100266280,
      -52141104,
      218474112,
      51323456,
      -189362416,
      46964,
      -120087232,
      -204633056,
      -49209428,
      98098504,
      138315760,
      118811792,
      -64501508,
      -205331504,
      -190688624,
      189358944,
      22585934,
      -123465760,
      -21062110,
      166019584,
      136281504,
      -162458800,
      -38513532,
      -36876620,
      41751968,
      68546456,
      93732896,
      -89684400,
      -102819336,
      152482432,
      -201652816,
      -155823264
    ],
    [
      -167951824,
      90263448,
      -93835936,
      158754624,
      26213974,
      -69953024,
      99388768,
      -39783912,
      160401600,
      -77091040,
      12978359,
      107510424,
      100544288,
      28923526,
      -153715664,
      175155888,
      183604544,
      107339600,
      -63439728,
      -134698976,
      62520572,
      95047696,
      150170080,
      -165053920,
      160561264,
      -661467,
      -153475680,
      177477504,
      -158312768,
      -31967204,
      -99436504,
      86556656,
      19006220,
      -177049360,
      48193300,
      91060896,
      -46546924,
      -110158976,
      -81380192,
      11929533,
      -6873563,
      -36399036,
      145177712,
      41389760,
      -61267540,
      -58648704,
      66707432,
      -74126640,
      64257352,
      -148954208
    ],
    [
      -46748592,
      3191461,
      183255520,
      -22399786,
      -167274880,
      35103352,
      160659760,
      77238520,
      8024853,
      177765168,
      7633157,
      -70360928,
      -82150392,
      3042716,
      49633696,
      -165558224,
      -12502640,
      115041304,
      -32785966,
      213070000,
      -234688352,
      -2805991,
      46375348,
      161362736,
      20965092,
      -52012228,
      123463744,
      6093001,
      84448304,
      -9185168,
      -137728064,
      165705552,
      117887184,
      42241132,
      -153272944,
      -180177584,
      37258660,
      30800690,
      -72304624,
      222468528,
      -166244608,
      -200712992,
      -223796576,
      -134103072,
      53779008,
      -56059652,
      -50838804,
      -170294864,
      139774752,
      174949216
    ],
    [
      -182266928,
      206629824,
      111744712,
      85969312,
      -51477940,
      -181512560,
      42533316,
      71011576,
      -208319856,
      -47147188,
      45376740,
      -31449902,
      145673424,
      165222608,
      -15706467,
      -68521328,
      -187763424,
      -48935188,
      163756080,
      152102144,
      172076464,
      -36467408,
      93099296,
      64433576,
      -18939036,
      -90381456,
      -35643480,
      122447056,
      187064864,
      185808704,
      188273376,
      87248024,
      -190446496,
      97851280,
      118638912,
      135250880,
      -100174432,
      -5597914,
      -127637936,
      110740104,
      211691552,
      149859744,
      -147483248,
      -40564132,
      -19892440,
      -190592176,
      -192333888,
      -71551088,
      -219628688,
      134737616
    ],
    [
      -83442808,
      144269632,
      -23359964,
      114115352,
      4079640,
      208362480,
      174068032,
      4994008,
      -145833536,
      -226802160,
      -89416496,
      -225211600,
      -198558816,
      31774838,
      140945712,
      66761724,
      -184942592,
      3714227,
      52961828,
      -231080464,
      209952464,
      157253904,
      -9043589,
      137862016,
      -34676288,
      -113788960,
      -180940880,
      -31502932,
      -123220936,
      -175513200,
      -81193936,
      -165432048,
      192690688,
      -212623728,
      89456776,
      74942432,
      65465688,
      42023560,
      9137964,
      165348832,
      163164512,
      122072176,
      -62386656,
      -4171607,
      161482096,
      217300912,
      21542196,
      -111817528,
      54706220,
      26680436
    ],
    [
      226398080,
      -29426510,
      17588388,
      244858256,
      67377480,
      196280816,
      200757536,
      212333744,
      101448944,
      -101511408,
      -180448800,
      -163181024,
      70637336,
      172985696,
      125443296,
      7449987,
      58555824,
      69516816,
      -26193530,
      -143189840,
      149551952,
      123142344,
      -29516786,
      170104288,
      -60059028,
      -134572704,
      -95273136,
      -218289936,
      -166916464,
      148281408,
      42277588,
      -175765776,
      29912950,
      128552216,
      -148188224,
      -148930672,
      187866560,
      -66278196,
      -145893632,
      -89042440,
      -67467248,
      95225128,
      -48937256,
      -40817196,
      -136021200,
      228022928,
      -98746400,
      199701136,
      -141974112,
      87622808
    ],
    [
      17644078,
      117709896,
      -145195632,
      40774320,
      -9247482,
      -3018560,
      83729808,
      -95944080,
      176724464,
      -54355232,
      55026516,
      -190582656,
      -23152330,
      126126424,
      32267020,
      37624416,
      71229472,
      215865680,
      -185766512,
      206320304,
      -158028176,
      -11616685,
      73495736,
      -228521872,
      -31360820,
      202322992,
      -159295536,
      176801184,
      -30475080,
      87981072,
      -62695504,
      -35526404,
      198908256,
      56582088,
      20444400,
      216515376,
      -128738776,
      14754452,
      104461200,
      49473380,
      59629036,
      -144377792,
      136791152,
      110653256,
      -55388136,
      207686352,
      -43815328,
      -167127248,
      30046460,
      -94855688
    ],
    [
      15229627,
      215296128,
      -216944656,
      53951664,
      132294240,
      181524816,
      -76193816,
      -34382832,
      -172272400,
      -233832880,
      -231981984,
      88818152,
      -150834224,
      29112718,
      191297616,
      -31730480,
      33546570,
      -69887200,
      109756320,
      102947872,
      10976979,
      181271104,
      118123640,
      97467352,
      -141729520,
      125777904,
      -216218224,
      -38920936,
      143570032,
      -10198607,
      -208212416,
      26633054,
      -31793270,
      169588896,
      209804304,
      19621624,
      25777798,
      -128143368,
      198664608,
      198316032,
      186178448,
      200815504,
      -122595152,
      179808416,
      130880032,
      -21262018,
      100250944,
      -76676104,
      28911460,
      87121312
    ],
    [
      -191618592,
      -194475376,
      25078856,
      155001152,
      51277964,
      -90188104,
      -19306896,
      50056108,
      89044200,
      -131264168,
      -117830128,
      -86332720,
      -195514240,
      118228456,
      -110940160,
      -54855952,
      -60738188,
      153166208,
      -68236784,
      -5297302,
      89347680,
      -222036592,
      102518432,
      59136900,
      -131108088,
      236630656,
      180642160,
      -164017536,
      87744712,
      8346339,
      17548888,
      -153385408,
      169716336,
      72037808,
      -150210528,
      -160969280,
      203397120,
      -81862096,
      -173592432,
      -82334888,
      170294416,
      158477984,
      -129693168,
      -46630420,
      -96447528,
      4884691,
      -69023712,
      84209072,
      8238995,
      -113180464
    ],
    [
      160479936,
      218140096,
      126634824,
      -193635680,
      46236424,
      59365888,
      175841632,
      196783152,
      194026512,
      -42195636,
      -110643976,
      -113166672,
      -61290128,
      -67320800,
      -54032848,
      -236376080,
      241614720,
      25419798,
      3390565,
      25436948,
      -220158496,
      -134700544,
      -107043856,
      66826552,
      -147316288,
      67372120,
      119861720,
      -204479024,
      -210059152,
      108349040,
      -12253250,
      13255320,
      104206232,
      -15160555,
      -96949328,
      -56584088,
      149618944,
      -169835408,
      -231027792,
      223000320,
      -111261904,
      -163032480,
      259464208,
      218628960,
      1457437,
      -149124912,
      -81393008,
      -31867862,
      -113237792,
      197177152
    ],
    [
      -68698552,
      24483094,
      -145372352,
      -33719388,
      110549424,
      -150290448,
      -157555104,
      -91201560,
      75727160,
      -195119008,
      -121295024,
      202688048,
      -65092856,
      164248944,
      142515280,
      28391604,
      -179275408,
      283346464,
      -125100224,
      49862476,
      -127102064,
      -227458784,
      162448544,
      181914400,
      102972560,
      242264432,
      -54923652,
      -106338728,
      -82610784,
      79851480,
      170150720,
      9970406,
      -16486967,
      10688900,
      119487408,
      -114368960,
      -223373440,
      102282216,
      113247592,
      -201742336,
      -104354808,
      -90459224,
      245929568,
      57972468,
      -79020768,
      -159120960,
      -164870480,
      174160864,
      186030928,
      -137270400
    ],
    [
      -194872784,
      92343840,
      98299536,
      21122590,
      -136977600,
      -132509608,
      105772416,
      -206982544,
      -107957272,
      -240033088,
      38265808,
      -22342696,
      -42444816,
      310693568,
      160468128,
      62268344,
      -41307920,
      59904376,
      54745616,
      -70728224,
      -213083408,
      206069168,
      10771781,
      192837152,
      155801312,
      219502576,
      -121078984,
      -46339100,
      -101007880,
      167763328,
      -162238128,
      -220771744,
      -234953136,
      61761284,
      -213702208,
      -77451632,
      -295299776,
      -35514216,
      -135031024,
      4287409,
      131571024,
      235442320,
      306689152,
      144687584,
      -156933968,
      -201763920,
      114775432,
      49642452,
      304644992,
      -218861168
    ]
  ],
  "layer1_bias": [
    0,
    11898585197051904,
    -6705655129833472,
    2962331822718976,
    0,
    -14797261846347776,
    -5958645963554816,
    1186320567238656,
    3613602678308864,
    -10886341936021504,
    -6007896890408960,
    -2832337658183680,
    8924096469401600,
    4928377798524928,
    -10594299192279040,
    -18226039465443328,
    1376514738225152,
    2135465389981696,
    0,
    75591536078749696,
    -6243562282811392,
    -7125798494404608,
    -5985393946132480,
    4381112797233152,
    -13264012208766976,
    7874352775168000,
    21502435939844096,
    -8041222455164928,
    0,
    -582881487355904,
    20844573651632128,
    -15173759753256960,
    -196395231346688,
    -13106804594573312,
    -9061473682718720,
    -12071193490227200,
    1766258726928384,
    -8497495084630016,
    -5692963581591552,
    3485692646653952,
    4036296985018368,
    1646455848697856,
    12946767670673408,
    40803851464343552,
    0,
    31465001277456384,
    -5141823714492416,
    -11944864543408128,
    -427942286983168,
    3113822835441664
  ],
  "layer2_weights": [
    [
      -181072112,
      205659296,
      135371504,
      -121136648,
      115626696,
      -14647961,
      54970892,
      -114566800,
      82977920,
      -147074160,
      111739872,
      -129077392,
      243463728,
      42728692,
      159746256,
      136389232,
      -224258736,
      235753216,
      -69246128,
      218078816,
      -261332720,
      248605872,
      -270672736,
      140721328,
      -62343344
    ],
    [
      172985856,
      -29113520,
      -263100976,
      -65934496,
      26448758,
      -50722988,
      -173119392,
      10302561,
      27732566,
      -88102480,
      136149152,
      148840368,
      -235063248,
      234832176,
      197927072,
      236450688,
      38888052,
      225724496,
      -70265952,
      -142610528,
      216356592,
      352888704,
      120844160,
      -138229904,
      -123105184
    ],
    [
      -186342352,
      171106368,
      175422512,
      16163293,
      99178888,
      176394928,
      -64844244,
      -218792752,
      164189536,
      -188457824,
      -152773296,
      161538672,
      61511056,
      -259426448,
      116245424,
      -197662048,
      -207865408,
      -112476048,
      -121536512,
      36448880,
      -244280256,
      147071488,
      -18363932,
      239399936,
      -112787568
    ],
    [
      -170496352,
      193707888,
      67684736,
      48206660,
      16394731,
      -175209488,
      -203243040,
      136695056,
      -134251024,
      -246384208,
      -273118976,
      -36987300,
      -173383488,
      -75295944,
      170750976,
      170785824,
      -11527804,
      -175600368,
      253199792,
      -309830624,
      -92332232,
      -64073184,
      -263547184,
      -91863376,
      105721848
    ],
    [
      27229012,
      -152932592,
      203651168,
      -234501568,
      -243033104,
      -144728704,
      -12859970,
      -16331881,
      204154976,
      37385076,
      83038928,
      226336208,
      -176231968,
      -31304718,
      139020624,
      -193736464,
      22494286,
      -147342832,
      165694832,
      30046106,
      101192984,
      -261877264,
      102239160,
      158829216,
      130245176
    ],
    [
      -173608480,
      183259024,
      -115326280,
      213335328,
      -166173696,
      -272983840,
      -16968648,
      -219029056,
      -225000464,
      32357730,
      97197976,
      -162969808,
      227168928,
      -36937060,
      127723976,
      -97405760,
      -159684560,
      120050400,
      5870176,
      -204514848,
      193257280,
      -97290992,
      126918016,
      106836800,
      192790896
    ],
    [
      159419008,
      -73207320,
      -185721392,
      9873646,
      278109344,
      -256058,
      233309056,
      61540008,
      -2286716,
      -159712080,
      192200416,
      66460788,
      144543536,
      128650296,
      -61992120,
      176410880,
      22342830,
      166551952,
      286800032,
      244027584,
      69036152,
      38687352,
      186024880,
      -251360240,
      194552608
    ],
    [
      -215118800,
      -3669098,
      5485706,
      -13175045,
      -50437608,
      -173612208,
      220378256,
      36344244,
      -21089876,
      -95344264,
      232091376,
      82155592,
      202037344,
      -129917472,
      254701520,
      -49594516,
      124530192,
      -138716544,
      -192571200,
      -74075312,
      -60730500,
      -177853248,
      3290563,
      -177610672,
      47914664
    ],
    [
      -221455536,
      192248400,
      -207370144,
      69310064,
      257250608,
      -277191808,
      -219259504,
      -89174080,
      -127925008,
      -204273184,
      -127649352,
      221144992,
      -205425568,
      -279173120,
      -61687636,
      120553304,
      -211419232,
      -26451350,
      129716368,
      -1150974,
      -76565128,
      -53820128,
      -241750208,
      -129589472,
      200787984
    ],
    [
      -267884432,
      193949200,
      -135306352,
      -266356704,
      -61115356,
      -81647896,
      30044556,
      -266789824,
      -39410876,
      65028676,
      20292520,
      -35751896,
      -234806032,
      153267280,
      -185686096,
      205100640,
      108985752,
      -193024624,
      230387248,
      179069280,
      172710528,
      -243410080,
      44060588,
      58964312,
      -14064312
    ],
    [
      -270337120,
      111656608,
      -4561261,
      242999040,
      -87203648,
      226360944,
      -96043168,
      -24122474,
      197314080,
      274580832,
      -275991616,
      -172636544,
      -71826232,
      -255356048,
      252701584,
      165259456,
      73531256,
      139417328,
      243886384,
      -216484496,
      -95243808,
      -199143744,
      -228758208,
      -180519152,
      24935668
    ],
    [
      -138478848,
      -131041824,
      -5752358,
      244657152,
      -249615968,
      -178534768,
      218970816,
      63847488,
      -168650480,
      184951376,
      13003086,
      159657392,
      78194416,
      -120149872,
      77942672,
      101690024,
      86079584,
      -246057488,
      -133819984,
      33548984,
      -82466624,
      -29479440,
      -282031808,
      -132017536,
      -272035168
    ],
    [
      -159315360,
      -203071296,
      -98577440,
      -203303568,
      107056624,
      7122928,
      167802416,
      -34469396,
      -106668088,
      27420084,
      267292944,
      127837864,
      -240708144,
      -13214215,
      114469120,
      40287592,
      193065152,
      -254284768,
      -279402464,
      -55936072,
      180536368,
      202508480,
      172137264,
      -60593984,
      -98359480
    ],
    [
      -164881776,
      -239688080,
      254805568,
      82082984,
      -16255319,
      202354096,
      95724696,
      -270265600,
      252577904,
      222000064,
      138285616,
      150125792,
      -149028384,
      72765184,
      -144897616,
      193008400,
      -266917024,
      -176237760,
      79328936,
      47503240,
      81335160,
      262303472,
      -272320736,
      -153205872,
      -145567376
    ],
    [
      92057704,
      -236364080,
      120924280,
      -203513568,
      284927392,
      -254525296,
      -220363088,
      -118859040,
      104415264,
      97356320,
      -214081648,
      49767824,
      -252091760,
      -204250512,
      -180502608,
      170962064,
      274001248,
      139065600,
      -255847104,
      -215050496,
      118290368,
      221044096,
      123362008,
      -124966136,
      26670742
    ],
    [
      7766694,
      96778248,
      -3021381,
      272943744,
      36560696,
      -292278336,
      -246364224,
      -208728240,
      -50834816,
      54627388,
      31006640,
      -277247488,
      195062704,
      252532832,
      -135941392,
      -118311736,
      246140544,
      150453056,
      -27920806,
      -180193520,
      142014016,
      26937144,
      180641952,
      -56080892,
      120981192
    ],
    [
      -217590496,
      222486992,
      54049048,
      646623,
      -70804368,
      17676740,
      -254513152,
      174397536,
      137541184,
      56834504,
      -103868704,
      -20748836,
      -163519088,
      137212752,
      205739408,
      197061472,
      131615416,
      40560992,
      -95698000,
      13779851,
      -29954920,
      -143439488,
      -223140864,
      17527284,
      18345870
    ],
    [
      104529264,
      -104254368,
      -226273648,
      -115719096,
      227853664,
      225173952,
      -131492064,
      -286156288,
      178584704,
      -60040624,
      -9069274,
      135224016,
      226419936,
      236693360,
      -80042792,
      -8612395,
      -276630240,
      260293696,
      109167496,
      -18425902,
      -257030304,
      147808464,
      147834640,
      -218877840,
      -181306256
    ],
    [
      -237652672,
      -27299434,
      93771696,
      -277709856,
      -166326112,
      184194272,
      98336816,
      -30058742,
      -9625047,
      -260154848,
      -16099960,
      29568762,
      -32519758,
      8828044,
      -220270960,
      226998544,
      -32193928,
      59635312,
      -154632400,
      2856016,
      77269552,
      239597104,
      -80624968,
      -171813968,
      12549162
    ],
    [
      -274289280,
      -77011424,
      -149004608,
      17803400,
      -114910144,
      203029376,
      -79158272,
      -370343328,
      283404832,
      182363488,
      -131676960,
      -9873226,
      -247265456,
      124262488,
      -111898688,
      -23273996,
      -257046672,
      -79817640,
      -132038280,
      353325216,
      49371908,
      -80494336,
      12039840,
      83792064,
      -256048768
    ],
    [
      72049584,
      -261659472,
      -65712816,
      129201768,
      27000828,
      -168368576,
      -279443808,
      269132480,
      -212837728,
      13940277,
      191393488,
      -276809184,
      167388768,
      -28878310,
      74201408,
      140004096,
      -20515390,
      -67705240,
      -168890048,
      -60588972,
      232289280,
      -10202378,
      21087736,
      44962192,
      177152832
    ],
    [
      -234221312,
      203718144,
      -11173839,
      86430488,
      119789448,
      170798656,
      264120496,
      -176538048,
      -3250756,
      -245779712,
      -89680880,
      -96970872,
      172989152,
      158382912,
      -183553584,
      272571552,
      135884288,
      -238042576,
      140644080,
      105989488,
      -46402420,
      55256068,
      151525088,
      215771376,
      -431032
    ],
    [
      282159648,
      212103136,
      -101029536,
      -110942720,
      215866096,
      -111660760,
      185480480,
      237035184,
      -31089274,
      -266781296,
      -1794725,
      -47272252,
      135685472,
      22962184,
      -189249872,
      162873888,
      -230247504,
      169766304,
      -210386752,
      -46708152,
      24866580,
      -46759292,
      35206912,
      130964280,
      -195364976
    ],
    [
      -50887300,
      -135254784,
      241635520,
      -181963488,
      262967344,
      -108942016,
      260232000,
      36718748,
      259548432,
      231562912,
      -240539072,
      77115184,
      -179763504,
      13311594,
      39791992,
      -100863248,
      -283238272,
      -170548736,
      -18356386,
      -51613264,
      92266712,
      262802304,
      132345376,
      -284635744,
      -96877592
    ],
    [
      -198294736,
      161332336,
      259445936,
      241062144,
      36116520,
      -124478336,
      -107016032,
      -28137240,
      173226736,
      -142704864,
      -225653936,
      -178904480,
      -25902012,
      -37550880,
      -208418640,
      -14428186,
      31347908,
      -155745424,
      5427562,
      72038032,
      92053352,
      -174271488,
      -247391824,
      34786220,
      134397872
    ],
    [
      -17985434,
      18474272,
      -142546160,
      -186228432,
      -142690496,
      274926528,
      35652320,
      -149685104,
      -87527592,
      254795312,
      89649856,
      -121664736,
      -204110272,
      236574096,
      -267937280,
      -275748192,
      -212997056,
      -110089600,
      161083696,
      -216835104,
      -308909,
      -79981920,
      -164268704,
      247629456,
      -188779648
    ],
    [
      -46781392,
      239517376,
      93039992,
      166970720,
      -63678092,
      197774656,
      -263972048,
      107735144,
      61879884,
      -288384064,
      -153417424,
      -12034445,
      -122700680,
      30372244,
      -77120280,
      77977256,
      -56344108,
      71605144,
      240785088,
      67383592,
      -79561440,
      229868224,
      36188516,
      -207928464,
      102018200
    ],
    [
      -181451760,
      -175888288,
      -251335440,
      -150728704,
      -22195406,
      -62363284,
      143377312,
      37751584,
      157380320,
      55534460,
      -184128528,
      -167869088,
      258260848,
      -82251888,
      112352376,
      160312544,
      236413104,
      68579528,
      77016656,
      -97629312,
      246190688,
      -5809481,
      -144165296,
      -85733488,
      -14988801
    ],
    [
      -272636288,
      -259626832,
      -15224189,
      -136766992,
      55587112,
      -120908928,
      254764400,
      -86891696,
      -82419280,
      -238424928,
      -162402944,
      -127205728,
      175806048,
      191971360,
      49526928,
      -194975504,
      -92387992,
      36097856,
      258526352,
      -172932912,
      53700416,
      243279904,
      -77372048,
      107558160,
      271402624
    ],
    [
      24876564,
      -165120192,
      34837840,
      193725856,
      -288421984,
      92331104,
      -171664016,
      261701232,
      -116103168,
      66981196,
      -87816376,
      -166057184,
      -48114044,
      -241998800,
      -154309248,
      -234678128,
      -144088768,
      176359200,
      254684448,
      -301841632,
      244928912,
      37750508,
      -202797536,
      -266699312,
      159910448
    ],
    [
      -200244464,
      -222648816,
      -171160752,
      -58005532,
      -13546398,
      220807632,
      205501808,
      -189328000,
      7891417,
      -148919728,
      77978320,
      -14845273,
      37047416,
      -101869816,
      150012368,
      160706960,
      -169390592,
      11081040,
      89289520,
      -30363944,
      8941585,
      233989712,
      -119597088,
      -296501376,
      -90973976
    ],
    [
      -54652468,
      182409936,
      -42340368,
      40535720,
      -250786368,
      62607056,
      -49061968,
      -235694560,
      3618579,
      -91024256,
      -138538992,
      170797200,
      98315320,
      -134329392,
      -47707596,
      -149306336,
      -148347824,
      -171011360,
      179302240,
      67822784,
      261047072,
      16347360,
      -98532792,
      22578042,
      -188375616
    ],
    [
      10985494,
      140628000,
      -37372076,
      -262827728,
      69846240,
      -21899152,
      -61850084,
      -78040856,
      -149003504,
      21301648,
      -272454112,
      -19599610,
      -153094320,
      -10042273,
      -124416440,
      -156647680,
      -149361120,
      257780704,
      69085096,
      -38894808,
      -216433840,
      190603968,
      -183526592,
      148355040,
      247876880
    ],
    [
      7942974,
      148869328,
      227233456,
      -13735073,
      249409536,
      -138761008,
      -65076368,
      184218384,
      -192385328,
      -33915456,
      138539088,
      145586544,
      207742624,
      -189620640,
      66026584,
      225509904,
      -267501360,
      53474724,
      -7851169,
      253649264,
      -96023904,
      147187008,
      161091104,
      -203309264,
      -173543328
    ],
    [
      93828736,
      160044768,
      -186538592,
      -51022852,
      32719802,
      59975236,
      -108874616,
      -150416176,
      -210362352,
      -136411616,
      -86600368,
      -176590176,
      84997368,
      86685224,
      152999152,
      213196656,
      22211104,
      77890608,
      -238415776,
      109495280,
      -196061600,
      -242103152,
      1088798,
      -36816236,
      153285792
    ],
    [
      282702784,
      -49494388,
      88172288,
      283762272,
      -75088704,
      -186863504,
      -170139040,
      -131924096,
      -27434438,
      249110096,
      -1982599,
      -197209520,
      -167237200,
      67796760,
      81036528,
      -35075036,
      -24102688,
      22269786,
      107280632,
      270053952,
      122466896,
      -12624688,
      -134983344,
      272604800,
      7052540
    ],
    [
      -194237296,
      85779304,
      211100272,
      70369832,
      37257348,
      -145605984,
      -62117344,
      -146512736,
      113512624,
      36965264,
      241526976,
      147572320,
      -162727840,
      -27248532,
      -269907072,
      173008080,
      102243264,
      -250038240,
      159239952,
      51036804,
      -158862528,
      -210684480,
      -202366688,
      -87749168,
      264929504
    ],
    [
      160424592,
      -5683307,
      -189330048,
      -109023560,
      -183377248,
      -143255856,
      -186696992,
      33672960,
      17035268,
      -162122736,
      -127362120,
      121056944,
      -89151560,
      33828916,
      -93727272,
      19040966,
      214210704,
      52354008,
      -29800702,
      -224016704,
      -48506612,
      154242224,
      166642912,
      158481520,
      -192696944
    ],
    [
      -186605216,
      -60059564,
      19156776,
      119853704,
      -173890304,
      -15349001,
      219192768,
      -121528072,
      226952704,
      -42035444,
      238289072,
      -138680320,
      -60119544,
      -141733200,
      142608496,
      53747812,
      167597440,
      -279472992,
      -127509448,
      60305160,
      116354224,
      63861736,
      -211837104,
      119129000,
      152548160
    ],
    [
      113899944,
      -131499160,
      215921376,
      -118460184,
      11646214,
      -162886288,
      254012160,
      -232585024,
      157515424,
      -8439712,
      -110244920,
      -134240784,
      -114095120,
      211274800,
      -14584139,
      -98418784,
      -38972556,
      -232144240,
      270849056,
      -166942896,
      220237488,
      19551070,
      210310912,
      158162240,
      202486016
    ],
    [
      -279396256,
      -238312192,
      -31592776,
      -148480240,
      -173693024,
      194887280,
      -10097484,
      86962840,
      199637824,
      206544288,
      -197651392,
      -210264720,
      106561824,
      32081276,
      154417008,
      259916576,
      48961592,
      -22435606,
      230021872,
      -51949252,
      100457784,
      189596256,
      -104338976,
      -28167418,
      -120541840
    ],
    [
      -13670623,
      -8083990,
      144934464,
      -172887008,
      106197024,
      -160785072,
      -184025952,
      -165536768,
      -104281512,
      -69401224,
      -73738848,
      -86249160,
      19101298,
      279054656,
      54034128,
      238843888,
      -124781896,
      132496088,
      -202290336,
      99788152,
      195595104,
      141342064,
      -268015232,
      -42462464,
      -282513120
    ],
    [
      -215252192,
      -112644608,
      241257600,
      147553888,
      -255679136,
      212710832,
      -78387088,
      124297824,
      140503872,
      267325792,
      191008176,
      -252670016,
      5519938,
      259591632,
      258527392,
      -212113552,
      174847696,
      -30102372,
      -231900336,
      -37205740,
      -133657368,
      -251812224,
      -37311012,
      255290448,
      36567588
    ],
    [
      -136899840,
      -170536448,
      -71210952,
      -189720784,
      -50852280,
      -38863428,
      -121231680,
      232670512,
      -221924656,
      105631568,
      -181731808,
      -237454064,
      -216009136,
      25945612,
      -75981264,
      168210512,
      -180568912,
      -19480736,
      217172704,
      118540576,
      116786248,
      -117139128,
      173713104,
      -100874608,
      138476304
    ],
    [
      167488880,
      275120000,
      148335936,
      262983168,
      109588680,
      -252421744,
      180307056,
      -24627178,
      24805010,
      -48489108,
      -93387232,
      244552704,
      -242872080,
      80831112,
      3374904,
      -79738464,
      -201906416,
      206620656,
      251517024,
      21418482,
      41960328,
      -165649328,
      125233408,
      135295712,
      -191056672
    ],
    [
      217232608,
      135376400,
      9176501,
      109315592,
      -9509618,
      133898528,
      202250912,
      181050800,
      113775984,
      -42793608,
      123591880,
      -226932160,
      -224760048,
      -151173488,
      -195829712,
      133982288,
      -6823674,
      128381344,
      -175946832,
      -168979104,
      12054496,
      24950332,
      34051292,
      -44115292,
      -85758264
    ],
    [
      -277300992,
      -240093488,
      -211377296,
      51526316,
      140346368,
      39705148,
      -140508704,
      238759008,
      135034576,
      208033424,
      91071400,
      -228565808,
      -116855952,
      7218168,
      98109232,
      207545520,
      -86655136,
      195115568,
      -16245458,
      126064808,
      -99546280,
      155041808,
      44815124,
      -239830144,
      -126197024
    ],
    [
      -70235000,
      -245882800,
      -95044736,
      52343360,
      213724144,
      70352936,
      -104052576,
      -156721680,
      216331536,
      -2320598,
      201648512,
      -152497888,
      201410960,
      -46653004,
      -49364440,
      -74949200,
      150474784,
      55196136,
      203737296,
      -234900592,
      -132065056,
      -168474112,
      -223354960,
      211030576,
      104563392
    ],
    [
      -103275360,
      176574176,
      54750096,
      141671072,
      96826016,
      -17463544,
      164777216,
      -93555536,
      281166848,
      126153872,
      -12084953,
      -32552772,
      44683452,
      -12315367,
      211798736,
      -191780768,
      -74654448,
      -178320496,
      149049984,
      276433856,
      -7942220,
      -303449888,
      109611216,
      65600128,
      39404728
    ],
    [
      -27226924,
      -105079440,
      -42470404,
      -57272248,
      128741728,
      53712448,
      -29090210,
      225553456,
      -70674160,
      -17704590,
      -228929792,
      222074336,
      186715376,
      -197680560,
      -93226784,
      -101180216,
      155191504,
      273598592,
      -68392072,
      85522408,
      -226355424,
      362589344,
      147918208,
      265174096,
      -13908951
    ]
  ],
  "layer2_bias": [
    0,
    -9223372036854775808,
    9223372036854775807,
    -9223372036854775808,
    -9223372036854775808,
    -9223372036854775808,
    9223372036854775807,
    9223372036854775807,
    -9223372036854775808,
    9223372036854775807,
    -9223372036854775808,
    -9223372036854775808,
    -9223372036854775808,
    9223372036854775807,
    9223372036854775807,
    9223372036854775807,
    -9223372036854775808,
    0,
    9223372036854775807,
    9223372036854775807,
    9223372036854775807,
    9223372036854775807,
    -9223372036854775808,
    -9223372036854775808,
    -9223372036854775808
  ],
  "layer3_weights": [
    [
      463591040
    ],
    [
      298891456
    ],
    [
      184568640
    ],
    [
      -231916192
    ],
    [
      36169508
    ],
    [
      223717648
    ],
    [
      -159949424
    ],
    [
      -163312288
    ],
    [
      12975390
    ],
    [
      431314464
    ],
    [
      -10001159
    ],
    [
      161253792
    ],
    [
      -314921216
    ],
    [
      306509024
    ],
    [
      274111552
    ],
    [
      -131766440
    ],
    [
      438345984
    ],
    [
      -260778064
    ],
    [
      238416688
    ],
    [
      -75334848
    ],
    [
      27520312
    ],
    [
      -48999836
    ],
    [
      -382447840
    ],
    [
      -391068384
    ],
    [
      -249676160
    ]
  ],
  "layer3_bias": [
    9223372036854775807
  ]
}